1483769778.605984 -2.648645 0.768683 -0.121003 
1483769778.739398 -1.928512 0.366451 -0.089981 
1483769778.872630 -1.229514 3.143011 -0.275809 
1483769778.972692 -1.324337 2.867639 -0.257779 
1483769779.105653 -0.622067 3.351030 -0.296720 
1483769779.205820 0.830179 0.829516 -0.149596 
1483769779.339141 0.630137 1.296162 -0.224749 
1483769779.472165 -1.615837 2.197056 -0.262300 
1483769779.572625 -2.062851 2.659991 -0.301166 
1483769779.672675 -5.730733 -0.824054 -0.219164 
1483769779.806882 -6.337080 -0.571322 -0.255269 
1483769779.939085 -6.257874 -1.186116 -0.175813 
1483769780.039396 -5.982825 -1.310184 -0.162392 
1483769780.172713 -4.825854 -1.759696 -0.140160 
1483769780.305513 -6.336431 -0.262531 -0.275873 
1483769780.405991 -6.049272 -0.367704 -0.269158 
1483769780.505377 -5.363475 -0.190435 -0.250039 
1483769780.605838 -5.526018 -0.794511 -0.184514 
1483769780.738975 -6.332236 -0.086912 -0.204292 
1483769780.839194 -6.398723 -0.057422 -0.205508 
1483769780.905372 -3.171532 -1.156977 -0.194311 
1483769781.005652 -0.621740 -1.022610 -0.197247 
1483769781.105859 0.130754 -0.228546 -0.229362 
1483769781.206138 0.161108 -0.208983 -0.229680 
1483769781.306181 0.000494 -0.167221 -0.232089 
1483769781.439297 0.131719 -0.230945 -0.228970 
1483769781.572783 0.151128 -0.283683 -0.227151 
1483769781.705690 1.215058 -0.028797 -0.221703 
1483769781.806114 1.218318 -0.071064 -0.220260 
1483769781.939150 2.905943 -0.074725 -0.199230 
1483769782.072374 2.893740 -0.059367 -0.199697 
1483769782.172833 2.876397 -0.053524 -0.199728 
1483769782.305707 2.894063 -0.027997 -0.199188 
1483769782.405953 2.498543 0.835445 -0.217233 
1483769782.506017 2.497805 0.832020 -0.217127 
1483769782.606195 2.477131 0.810511 -0.218208 
1483769782.672321 2.376918 0.609395 -0.217442 
1483769782.772613 2.259865 0.530277 -0.218656 
1483769782.906040 2.260204 0.526681 -0.218418 
1483769783.006126 2.081858 0.520558 -0.220297 
1483769783.105715 2.090360 0.489248 -0.220745 
1483769783.205999 1.679703 0.286215 -0.214528 
1483769783.339231 1.679461 0.286770 -0.214514 
1483769783.439561 1.785477 0.188296 -0.208603 
1483769783.573421 1.586447 0.239180 -0.208205 
1483769783.705575 1.290126 0.300970 -0.201884 
1483769783.805846 1.277560 0.308863 -0.202255 
1483769783.905496 1.595794 0.112168 -0.193434 
1483769784.005958 1.654216 -0.175324 -0.185871 
1483769784.072420 1.367305 -0.238959 -0.189100 
1483769784.205592 0.771947 -0.384065 -0.195300 
1483769784.305470 0.773038 -0.386684 -0.195195 
1483769784.438840 0.574049 -0.304928 -0.196750 
1483769784.572319 0.296313 -0.142833 -0.200753 
1483769784.705554 0.030830 -0.157051 -0.198848 
1483769784.805614 0.041609 -0.158071 -0.198710 
1483769784.871824 0.056268 -0.178989 -0.198082 
1483769784.972350 0.089940 -0.257626 -0.195147 
1483769785.105163 0.195252 -0.389018 -0.190720 
1483769785.205304 0.184836 -0.387786 -0.190825 
1483769785.272030 0.230663 -0.385916 -0.190449 
1483769785.372050 0.223717 -0.376343 -0.190759 
1483769785.472056 0.208619 -0.392218 -0.190365 
1483769785.573683 0.125728 -0.410574 -0.189815 
1483769785.705446 0.074071 -0.416015 -0.190239 
1483769785.805752 0.077197 -0.418563 -0.190162 
1483769785.939249 0.165831 -0.422323 -0.187538 
1483769786.072335 0.310261 -0.417505 -0.181663 
1483769786.205690 0.300628 -0.421272 -0.181554 
1483769786.338938 0.320014 -0.425918 -0.180981 
1483769786.405632 0.339523 -0.423787 -0.181945 
1483769786.505599 0.368963 -0.408969 -0.184219 
1483769786.605866 0.351138 -0.388319 -0.186346 
1483769786.739042 0.361744 -0.396101 -0.186113 
1483769786.839200 0.359675 -0.394618 -0.186178 
1483769786.939205 0.470780 -0.462151 -0.182937 
1483769787.071975 0.584506 -0.552314 -0.177932 
1483769787.172378 0.587380 -0.546637 -0.178161 
1483769787.239209 0.579460 -0.527526 -0.179126 
1483769787.305722 0.545542 -0.437709 -0.183577 
1483769787.405639 0.419238 -0.231926 -0.192659 
1483769787.472130 0.409824 -0.228789 -0.192690 
1483769787.573934 0.364376 -0.179747 -0.194388 
1483769787.638884 0.275089 -0.153004 -0.195344 
1483769787.705509 0.260642 -0.065379 -0.198440 
1483769787.805766 0.254217 -0.061333 -0.198417 
1483769787.939227 0.225277 -0.068728 -0.198124 
1483769788.039424 0.197138 -0.118774 -0.196249 
1483769788.172363 0.132320 -0.173733 -0.194046 
1483769788.305757 0.138125 -0.182643 -0.193733 
1483769788.405838 0.146944 -0.153120 -0.194557 
1483769788.505795 0.117048 -0.168159 -0.193357 
1483769788.638908 0.076415 -0.127798 -0.193200 
1483769788.705349 0.093725 -0.005933 -0.194619 
1483769788.805646 0.101122 -0.004619 -0.194681 
1483769788.905665 0.150945 0.016651 -0.195109 
1483769789.038901 0.127718 0.057624 -0.191851 
1483769789.139091 0.143236 0.016463 -0.188202 
1483769789.239068 0.148059 -0.161921 -0.187844 
1483769789.372205 0.145637 -0.160915 -0.187858 
1483769789.505613 0.127895 -0.210346 -0.184230 
1483769789.605873 0.116696 -0.272503 -0.177783 
1483769789.739209 0.110404 -0.324018 -0.174088 
1483769789.838927 0.111274 -0.325588 -0.174027 
1483769789.938978 0.117552 -0.320723 -0.174668 
1483769790.039022 0.081605 -0.302061 -0.176222 
1483769790.172397 0.105323 -0.318649 -0.175717 
1483769790.305323 0.121110 -0.273360 -0.180252 
1483769790.405622 0.118908 -0.274797 -0.180194 
1483769790.538701 0.128092 -0.259223 -0.178399 
1483769790.573077 0.123474 -0.219340 -0.178076 
1483769790.638779 0.123393 -0.215863 -0.178223 
1483769790.705328 0.130713 -0.222869 -0.177993 
1483769790.805601 0.109583 -0.216275 -0.178321 
1483769790.939031 0.111628 -0.201021 -0.178911 
1483769791.039289 0.108866 -0.203297 -0.178820 
1483769791.172429 0.103403 -0.205808 -0.178720 
1483769791.306713 0.091946 -0.208718 -0.179634 
1483769791.439292 0.111034 -0.214316 -0.179700 
1483769791.506456 0.108229 -0.214439 -0.179695 
1483769791.639051 0.112872 -0.210665 -0.179723 
1483769791.772372 0.112189 -0.212174 -0.179803 
1483769791.873085 0.103437 -0.222401 -0.179924 
1483769791.972109 0.103111 -0.231244 -0.179549 
1483769792.072132 0.095870 -0.228023 -0.179755 
1483769792.172292 0.101019 -0.229750 -0.179746 
1483769792.305429 0.105532 -0.211637 -0.180738 
1483769792.405615 0.115000 -0.199114 -0.181129 
1483769792.505637 0.112730 -0.197373 -0.181209 
1483769792.605797 0.092782 -0.204276 -0.181372 
1483769792.739155 0.082658 -0.227460 -0.181374 
1483769792.872197 0.091015 -0.230544 -0.181256 
1483769792.972324 0.093043 -0.218894 -0.181682 
1483769793.073089 0.094244 -0.226864 -0.181339 
1483769793.205446 0.085508 -0.218694 -0.181695 
1483769793.305702 0.101217 -0.199122 -0.182520 
1483769793.405784 0.110817 -0.193355 -0.182705 
1483769793.472548 0.101021 -0.187858 -0.182930 
1483769793.573446 0.085038 -0.192878 -0.182737 
1483769793.706217 0.091223 -0.205056 -0.181865 
