1484035853.387285 10.866091 19.664509 -1.470094 
1484035853.587731 6.028634 -12.910089 0.055142 
1484035853.754410 0.085976 -9.658740 -0.212816 
1484035853.988090 -2.500831 -6.893640 -0.205226 
1484035854.087790 -2.120623 -10.976716 -0.258727 
1484035854.254522 -0.533743 -12.982831 -0.483414 
1484035854.387571 -0.698294 -10.569535 -0.608910 
1484035854.520907 -0.048999 -8.326202 -0.482146 
1484035854.654408 -0.117558 -6.089806 -0.401793 
1484035854.787303 1.442449 -4.209262 -0.153549 
1484035854.920905 0.832922 -3.172569 -0.256464 
1484035855.154432 0.798498 -1.285040 -0.321419 
1484035855.320572 0.791100 -0.741964 -0.350970 
1484035855.454054 1.590457 -1.126657 -0.155342 
1484035855.620755 1.694344 -0.739737 -0.200292 
1484035855.787400 1.715768 -0.793279 -0.197535 
1484035855.953804 0.374104 -0.172678 -0.140023 
1484035856.087510 0.480909 -0.178051 -0.131836 
1484035856.287486 0.149408 -0.896580 -0.122295 
1484035856.520683 -0.327195 -1.363623 -0.162458 
1484035856.721039 -0.270751 -1.453508 -0.156385 
1484035856.920945 -0.155989 -1.259285 -0.170103 
1484035857.120994 0.057940 -1.452801 -0.149349 
1484035857.320507 0.096506 -1.525585 -0.147718 
1484035857.521050 -0.461923 0.501127 -0.199692 
1484035857.721072 -0.495133 0.517171 -0.204724 
1484035858.121101 -0.232728 0.315776 -0.179741 
1484035858.420669 -0.297305 0.044234 -0.186645 
1484035858.720810 -0.362018 0.136251 -0.194218 
1484035858.954066 -0.603206 0.162972 -0.206463 
1484035859.187349 -0.757955 0.154058 -0.206146 
1484035859.587381 -0.778361 0.101437 -0.197821 
1484035859.987489 -0.521450 0.043597 -0.171295 
1484035860.221056 -0.490921 0.070553 -0.174077 
1484035860.454507 -0.602039 0.104683 -0.184209 
1484035860.721007 -0.634592 0.098266 -0.185762 
1484035860.987529 -0.550535 0.098832 -0.177446 
1484035861.254787 -0.559996 0.091926 -0.176475 
1484035861.487817 -0.175275 0.066598 -0.131906 
1484035861.754682 -0.170056 0.068839 -0.131721 
1484035862.020905 -0.173378 0.059664 -0.132024 
1484035862.321237 -0.192667 0.056146 -0.133056 
1484035862.720807 -0.223904 0.033115 -0.129541 
1484035863.020841 -0.176748 0.047000 -0.133789 
1484035863.387540 -0.227660 0.055080 -0.138421 
1484035863.687753 -0.200974 0.026815 -0.132206 
1484035864.020633 -0.267109 0.074870 -0.146613 
1484035864.354219 -0.225776 0.113485 -0.140873 
1484035864.654167 -0.314264 0.103781 -0.152244 
1484035864.987574 -0.322449 0.110348 -0.152361 
1484035865.356657 -0.376461 0.110678 -0.159311 
1484035865.920862 -0.338566 0.118922 -0.150568 
1484035866.254500 -0.080833 0.120823 -0.127396 
1484035866.587551 -0.095797 0.114889 -0.126958 
1484035866.954165 -0.117166 0.120945 -0.131652 
1484035867.320956 -0.080481 0.119429 -0.126873 
1484035867.687731 -0.131117 0.127199 -0.132933 
1484035868.054537 -0.119625 0.110357 -0.129207 
1484035868.420901 -0.083571 0.156050 -0.129944 
1484035868.754758 -0.088839 0.129194 -0.129866 
1484035869.154167 -0.071994 0.084036 -0.120187 
1484035869.587732 0.001597 0.162415 -0.131388 
1484035869.987411 -0.257624 0.094095 -0.145041 
1484035870.387326 -0.154991 0.128311 -0.141282 
1484035870.787642 -0.227706 0.147625 -0.148002 
1484035871.187306 -0.234569 0.137877 -0.143490 
1484035871.620992 -0.205155 0.141387 -0.141586 
1484035872.054024 -0.141230 0.106858 -0.132440 
1484035872.487655 -0.106723 0.176561 -0.130452 
1484035872.920973 -0.072304 0.093291 -0.125617 
1484035873.354109 -0.049869 0.184223 -0.122578 
1484035873.787103 -0.152387 0.205750 -0.135066 
1484035874.253892 0.107996 0.200884 -0.103667 
1484035874.720842 -0.056981 0.107189 -0.121003 
1484035875.187613 -0.077187 0.044593 -0.121410 
1484035875.653925 -0.087550 0.009799 -0.121741 
1484035876.121000 -0.100878 -0.024494 -0.122824 
1484035876.587669 -0.113302 -0.011474 -0.125572 
1484035876.954178 -0.128529 0.012456 -0.125594 
1484035877.354380 -0.120402 0.004891 -0.123723 
1484035877.654330 -0.119670 -0.011747 -0.125306 
1484035878.021006 -0.135947 -0.002728 -0.126740 
1484035878.387571 -0.109198 -0.002444 -0.121471 
1484035878.887826 -0.144145 -0.019223 -0.137454 
1484035879.254273 -0.203781 -0.065644 -0.136679 
1484035879.688025 -0.220703 -0.038781 -0.141746 
1484035880.087475 -0.226752 -0.050899 -0.138897 
1484035880.387650 -0.230517 -0.053920 -0.138567 
1484035880.654190 -0.239461 -0.054135 -0.140043 
1484035880.954062 -0.247079 -0.057992 -0.140704 
1484035881.254143 -0.237146 -0.057929 -0.139759 
1484035881.487632 -0.230303 -0.061452 -0.139256 
1484035881.820752 -0.230227 -0.053210 -0.139027 
1484035882.154033 -0.225251 -0.079921 -0.136920 
1484035882.454291 -0.213408 -0.059875 -0.136813 
1484035882.754410 -0.227393 -0.077969 -0.138175 
1484035883.087600 -0.214924 -0.063450 -0.137136 
1484035883.387976 -0.201442 -0.035825 -0.135791 
