1483769778.605984 0.001332 -0.002252 0.000706 
1483769778.739398 0.001396 -0.002372 0.000639 
1483769778.872630 0.001296 -0.002320 0.000647 
1483769778.972692 0.001209 -0.002329 0.000645 
1483769779.105653 0.001307 -0.002367 0.000512 
1483769779.205820 0.001357 -0.002342 0.000625 
1483769779.339141 0.001207 -0.002492 0.000624 
1483769779.472165 0.001218 -0.002385 0.000629 
1483769779.572625 0.001301 -0.002356 0.000677 
1483769779.672675 0.001326 -0.002346 0.000677 
1483769779.806882 0.001164 -0.002486 0.000779 
1483769779.939085 0.001076 -0.002207 0.000948 
1483769780.039396 0.001126 -0.002078 0.000973 
1483769780.172713 0.001105 -0.002043 0.000855 
1483769780.305513 0.001348 -0.002179 0.000510 
1483769780.405991 0.001298 -0.002237 0.000308 
1483769780.505377 0.001006 -0.002193 0.000221 
1483769780.605838 0.001077 -0.002254 0.000093 
1483769780.738975 0.001351 -0.002429 0.000567 
1483769780.839194 0.001519 -0.002474 0.000519 
1483769780.905372 0.001429 -0.002431 0.000608 
1483769781.005652 0.001494 -0.002192 0.000859 
1483769781.105859 0.001370 -0.002371 0.000909 
1483769781.206138 0.001316 -0.002413 0.000921 
1483769781.306181 0.001379 -0.002337 0.000963 
1483769781.439297 0.001515 -0.001963 0.001203 
1483769781.572783 0.001536 -0.001815 0.001173 
1483769781.705690 0.001169 -0.001817 0.001095 
1483769781.806114 0.001145 -0.001698 0.001015 
1483769781.939150 0.000151 -0.002085 -0.000214 
1483769782.072374 0.000104 -0.002218 -0.000141 
1483769782.172833 0.000271 -0.002124 -0.000148 
1483769782.305707 0.000797 -0.002292 -0.000196 
1483769782.405953 0.002389 -0.002500 0.000247 
1483769782.506017 0.002360 -0.002534 0.000151 
1483769782.606195 0.002217 -0.002391 0.000198 
1483769782.672321 0.001829 -0.002217 0.000313 
1483769782.772613 0.001422 -0.002234 0.000360 
1483769782.906040 0.001376 -0.002164 0.000312 
1483769783.006126 0.001163 -0.002077 0.000455 
1483769783.105715 0.000883 -0.001925 0.000549 
1483769783.205999 0.000666 -0.001351 0.000394 
1483769783.339231 0.000640 -0.001357 0.000359 
1483769783.439561 0.000536 -0.001694 0.000567 
1483769783.573421 0.000956 -0.001733 0.000774 
1483769783.705575 0.001435 -0.001974 0.001030 
1483769783.805846 0.001598 -0.001965 0.001088 
1483769783.905496 0.001637 -0.002048 0.000825 
1483769784.005958 0.001448 -0.002295 0.000503 
1483769784.072420 0.001399 -0.002127 0.000455 
1483769784.205592 0.001428 -0.002070 0.000112 
1483769784.305470 0.001417 -0.002089 0.000043 
1483769784.438840 0.001415 -0.001878 0.000151 
1483769784.572319 0.001275 -0.002010 0.000167 
1483769784.705554 0.001388 -0.001856 0.000575 
1483769784.805614 0.001499 -0.001883 0.000702 
1483769784.871824 0.001502 -0.001961 0.000620 
1483769784.972350 0.001402 -0.002043 0.000446 
1483769785.105163 0.001304 -0.002160 0.000393 
1483769785.205304 0.001203 -0.002140 0.000369 
1483769785.272030 0.001458 -0.002107 0.000406 
1483769785.372050 0.001429 -0.001991 0.000326 
1483769785.472056 0.001238 -0.002062 0.000332 
1483769785.573683 0.000481 -0.001983 0.000298 
1483769785.705446 -0.000074 -0.001950 0.000006 
1483769785.805752 -0.000049 -0.001986 -0.000006 
1483769785.939249 0.000226 -0.002032 0.000228 
1483769786.072335 0.000558 -0.001719 0.000757 
1483769786.205690 0.000435 -0.001763 0.000691 
1483769786.338938 0.000614 -0.001835 0.000733 
1483769786.405632 0.000781 -0.001998 0.000717 
1483769786.505599 0.000864 -0.002309 0.001102 
1483769786.605866 0.000584 -0.002465 0.001146 
1483769786.739042 0.000650 -0.002571 0.001022 
1483769786.839200 0.000493 -0.002417 0.000903 
1483769786.939205 0.000432 -0.002334 0.000806 
1483769787.071975 0.000206 -0.002091 0.000661 
1483769787.172378 0.000219 -0.002023 0.000944 
1483769787.239209 0.000228 -0.002131 0.000835 
1483769787.305722 0.000396 -0.002366 0.000914 
1483769787.405639 0.000695 -0.002042 0.001063 
1483769787.472130 0.000639 -0.002030 0.000878 
1483769787.573934 0.000473 -0.002037 0.000760 
1483769787.638884 0.000461 -0.002198 0.000595 
1483769787.705509 0.000521 -0.002250 0.000438 
1483769787.805766 0.000479 -0.002213 0.000635 
1483769787.939227 0.000565 -0.002190 0.000622 
1483769788.039424 0.000595 -0.002308 0.000407 
1483769788.172363 0.000493 -0.002258 -0.000026 
1483769788.305757 0.000524 -0.002393 -0.000031 
1483769788.405838 0.000427 -0.002263 0.000358 
1483769788.505795 0.000246 -0.002405 0.000077 
1483769788.638908 -0.000216 -0.002476 0.000546 
1483769788.705349 0.000426 -0.002262 0.001098 
1483769788.805646 0.000514 -0.002268 0.001273 
1483769788.905665 0.000600 -0.002344 0.000935 
1483769789.038901 0.000892 -0.002358 0.000777 
1483769789.139091 0.000784 -0.002767 0.000253 
1483769789.239068 0.000610 -0.002716 0.000425 
1483769789.372205 0.000584 -0.002688 0.000456 
1483769789.505613 0.000574 -0.002609 0.000347 
1483769789.605873 0.000792 -0.002228 0.000035 
1483769789.739209 0.001151 -0.002256 -0.000189 
1483769789.838927 0.001154 -0.002280 -0.000192 
1483769789.938978 0.000966 -0.002304 -0.000162 
1483769790.039022 -0.000085 -0.002063 -0.000109 
1483769790.172397 -0.000324 -0.002256 0.000055 
1483769790.305323 -0.000679 -0.002269 0.000895 
1483769790.405622 -0.000711 -0.002281 0.000858 
1483769790.538701 -0.000163 -0.002530 0.000743 
1483769790.573077 0.000353 -0.002727 0.000508 
1483769790.638779 0.000366 -0.002682 0.000532 
1483769790.705328 0.000360 -0.002706 0.000518 
1483769790.805601 -0.000099 -0.002486 0.000488 
1483769790.939031 -0.000257 -0.002128 0.000513 
1483769791.039289 -0.000300 -0.002146 0.000557 
1483769791.172429 -0.000328 -0.002155 0.000461 
1483769791.306713 -0.000392 -0.002384 0.000509 
1483769791.439292 -0.000102 -0.002512 0.000690 
1483769791.506456 -0.000137 -0.002502 0.000717 
1483769791.639051 -0.000116 -0.002474 0.000577 
1483769791.772372 -0.000116 -0.002491 0.000527 
1483769791.873085 -0.000266 -0.002784 0.000172 
1483769791.972109 -0.000301 -0.002890 0.000188 
1483769792.072132 -0.000364 -0.002832 0.000224 
1483769792.172292 -0.000282 -0.002860 0.000165 
1483769792.305429 -0.000114 -0.002641 0.000349 
1483769792.405615 0.000096 -0.002485 0.000595 
1483769792.505637 0.000075 -0.002456 0.000602 
1483769792.605797 -0.000192 -0.002512 0.000571 
1483769792.739155 -0.000429 -0.002860 0.000677 
1483769792.872197 -0.000341 -0.002927 0.000663 
1483769792.972324 -0.000316 -0.002791 0.000777 
1483769793.073089 -0.000331 -0.002895 0.000732 
1483769793.205446 -0.000401 -0.002764 0.000791 
1483769793.305702 -0.000147 -0.002569 0.000748 
1483769793.405784 0.000002 -0.002516 0.000885 
1483769793.472548 -0.000093 -0.002406 0.001150 
1483769793.573446 -0.000299 -0.002420 0.001084 
1483769793.706217 -0.000221 -0.002584 0.001184 
