1484227925.304062 0.000931 -0.006253 -0.001645 
1484227925.705733 0.000733 -0.006029 -0.001759 
1484227926.236820 0.000872 -0.005831 -0.001717 
1484227926.805040 0.000522 -0.005933 -0.001140 
1484227927.305723 0.000660 -0.005796 -0.001509 
1484227927.971731 0.001457 -0.005034 -0.001027 
1484227928.537068 0.000953 -0.005459 -0.001495 
1484227929.236991 0.001642 -0.004891 -0.001637 
1484227929.736852 0.000827 -0.004960 -0.001755 
1484227930.270010 0.001762 -0.004492 -0.000964 
1484227930.770026 0.000376 -0.004527 -0.001650 
1484227931.373982 0.000687 -0.004269 -0.000791 
1484227931.937742 0.000677 -0.004334 -0.001702 
1484227932.503740 0.000583 -0.005133 0.000335 
1484227933.070932 0.001128 -0.003704 -0.001653 
1484227933.604476 0.000882 -0.004065 -0.001493 
1484227934.201858 0.000035 -0.004146 -0.000582 
1484227934.837601 0.000334 -0.003932 -0.000530 
1484227935.503742 0.000866 -0.003892 -0.000697 
1484227936.170184 0.000421 -0.003570 -0.000617 
1484227936.937857 0.000371 -0.004067 -0.000493 
1484227937.668390 0.000753 -0.004042 0.000072 
1484227938.470098 -0.000032 -0.004332 0.000735 
1484227939.238445 0.000608 -0.003289 -0.000010 
1484227940.072222 0.000449 -0.003610 0.000461 
1484227940.936930 0.000567 -0.003242 0.000517 
1484227941.803649 0.000408 -0.003484 0.000679 
1484227942.736804 0.000404 -0.003647 0.001335 
1484227943.736782 0.001053 -0.002420 0.001264 
1484227944.669463 0.000801 -0.002955 0.000884 
1484227945.603826 0.000854 -0.002628 0.001616 
1484227946.641678 0.000505 -0.002856 0.000623 
1484227947.674534 0.000929 -0.002612 0.001243 
1484227948.671735 0.000849 -0.002851 0.001237 
1484227949.770476 0.000638 -0.002713 0.000606 
1484227950.903844 0.000326 -0.002636 0.001356 
1484227952.171307 0.000383 -0.002082 0.001162 
1484227953.204223 0.000518 -0.002076 0.001553 
1484227954.336505 0.000106 -0.002016 0.001581 
1484227955.671666 0.000477 -0.001444 0.000697 
